<?xml version="1.0"?>
<opencv_storage>
<cascade>
  <stageType>BOOST</stageType>
  <featureType>HAAR</featureType>
  <height>60</height>
  <width>80</width>
  <stageParams>
    <boostType>GAB</boostType>
    <minHitRate>9.9900001287460327e-01</minHitRate>
    <maxFalseAlarm>5.0000000000000000e-01</maxFalseAlarm>
    <weightTrimRate>9.4999999999999996e-01</weightTrimRate>
    <maxDepth>1</maxDepth>
    <maxWeakCount>100</maxWeakCount></stageParams>
  <featureParams>
    <maxCatCount>0</maxCatCount>
    <featSize>1</featSize>
    <mode>ALL</mode></featureParams>
  <stageNum>12</stageNum>
  <stages>
    <!-- stage 0 -->
    <_>
      <maxWeakCount>2</maxWeakCount>
      <stageThreshold>-3.8027691841125488e-01</stageThreshold>
      <weakClassifiers>
        <_>
          <internalNodes>
            0 -1 1 3.4098738431930542e-01</internalNodes>
          <leafValues>
            -9.2913383245468140e-01 7.9853481054306030e-01</leafValues></_>
        <_>
          <internalNodes>
            0 -1 43 -2.3190217092633247e-02</internalNodes>
          <leafValues>
            5.4885691404342651e-01 -9.7017705440521240e-01</leafValues></_></weakClassifiers></_>
    <!-- stage 1 -->
    <_>
      <maxWeakCount>4</maxWeakCount>
      <stageThreshold>-1.0375502109527588e+00</stageThreshold>
      <weakClassifiers>
        <_>
          <internalNodes>
            0 -1 12 5.4080090485513210e-03</internalNodes>
          <leafValues>
            -8.3478260040283203e-01 6.8771928548812866e-01</leafValues></_>
        <_>
          <internalNodes>
            0 -1 24 -6.5424632339272648e-05</internalNodes>
          <leafValues>
            -9.8447495698928833e-01 4.4961956143379211e-01</leafValues></_>
        <_>
          <internalNodes>
            0 -1 16 -6.1663748056162149e-05</internalNodes>
          <leafValues>
            -9.6475851535797119e-01 3.9138537645339966e-01</leafValues></_>
        <_>
          <internalNodes>
            0 -1 64 1.9121787772746757e-05</internalNodes>
          <leafValues>
            3.1237134337425232e-01 -9.0597170591354370e-01</leafValues></_></weakClassifiers></_>
    <!-- stage 2 -->
    <_>
      <maxWeakCount>2</maxWeakCount>
      <stageThreshold>-2.0139676332473755e-01</stageThreshold>
      <weakClassifiers>
        <_>
          <internalNodes>
            0 -1 14 6.7751342430710793e-03</internalNodes>
          <leafValues>
            -7.1532845497131348e-01 7.5285172462463379e-01</leafValues></_>
        <_>
          <internalNodes>
            0 -1 42 1.1760372435674071e-03</internalNodes>
          <leafValues>
            -9.5424848794937134e-01 5.6292825937271118e-01</leafValues></_></weakClassifiers></_>
    <!-- stage 3 -->
    <_>
      <maxWeakCount>4</maxWeakCount>
      <stageThreshold>-1.0871540307998657e+00</stageThreshold>
      <weakClassifiers>
        <_>
          <internalNodes>
            0 -1 45 2.1656138414982706e-05</internalNodes>
          <leafValues>
            5.7199054956436157e-01 -9.9392098188400269e-01</leafValues></_>
        <_>
          <internalNodes>
            0 -1 45 -5.5561416957061738e-05</internalNodes>
          <leafValues>
            -9.6095871925354004e-01 4.6032989025115967e-01</leafValues></_>
        <_>
          <internalNodes>
            0 -1 56 4.2403062252560630e-06</internalNodes>
          <leafValues>
            2.5599917769432068e-01 -9.7297126054763794e-01</leafValues></_>
        <_>
          <internalNodes>
            0 -1 39 -2.1024083252996206e-05</internalNodes>
          <leafValues>
            -9.5418500900268555e-01 2.6803848147392273e-01</leafValues></_></weakClassifiers></_>
    <!-- stage 4 -->
    <_>
      <maxWeakCount>5</maxWeakCount>
      <stageThreshold>-5.7349932193756104e-01</stageThreshold>
      <weakClassifiers>
        <_>
          <internalNodes>
            0 -1 54 -2.7600159228313714e-05</internalNodes>
          <leafValues>
            -8.5330075025558472e-01 6.2888330221176147e-01</leafValues></_>
        <_>
          <internalNodes>
            0 -1 35 -3.7804967723786831e-04</internalNodes>
          <leafValues>
            4.2446619272232056e-01 -8.1330430507659912e-01</leafValues></_>
        <_>
          <internalNodes>
            0 -1 4 4.6958040446043015e-02</internalNodes>
          <leafValues>
            -6.6250562667846680e-01 5.1290827989578247e-01</leafValues></_>
        <_>
          <internalNodes>
            0 -1 55 1.4157862096908502e-05</internalNodes>
          <leafValues>
            3.0455636978149414e-01 -9.7646254301071167e-01</leafValues></_>
        <_>
          <internalNodes>
            0 -1 20 4.8820704250829294e-05</internalNodes>
          <leafValues>
            2.7564108371734619e-01 -9.1228461265563965e-01</leafValues></_></weakClassifiers></_>
    <!-- stage 5 -->
    <_>
      <maxWeakCount>6</maxWeakCount>
      <stageThreshold>-1.1015349626541138e+00</stageThreshold>
      <weakClassifiers>
        <_>
          <internalNodes>
            0 -1 56 -4.4296207306615543e-06</internalNodes>
          <leafValues>
            -5.4960632324218750e-01 7.7616578340530396e-01</leafValues></_>
        <_>
          <internalNodes>
            0 -1 2 2.2835400700569153e-01</internalNodes>
          <leafValues>
            -9.0446668863296509e-01 4.3105441331863403e-01</leafValues></_>
        <_>
          <internalNodes>
            0 -1 44 -2.3813590814825147e-05</internalNodes>
          <leafValues>
            -9.8999208211898804e-01 2.6583823561668396e-01</leafValues></_>
        <_>
          <internalNodes>
            0 -1 0 3.0999323353171349e-03</internalNodes>
          <leafValues>
            -5.5118370056152344e-01 5.2193951606750488e-01</leafValues></_>
        <_>
          <internalNodes>
            0 -1 60 1.2301324204599950e-05</internalNodes>
          <leafValues>
            3.3813148736953735e-01 -9.0951639413833618e-01</leafValues></_>
        <_>
          <internalNodes>
            0 -1 28 1.2343751732259989e-03</internalNodes>
          <leafValues>
            -8.6520290374755859e-01 2.9975199699401855e-01</leafValues></_></weakClassifiers></_>
    <!-- stage 6 -->
    <_>
      <maxWeakCount>6</maxWeakCount>
      <stageThreshold>-1.2086423635482788e+00</stageThreshold>
      <weakClassifiers>
        <_>
          <internalNodes>
            0 -1 33 -2.9068127332720906e-05</internalNodes>
          <leafValues>
            -9.4630873203277588e-01 5.2380955219268799e-01</leafValues></_>
        <_>
          <internalNodes>
            0 -1 5 1.7512138001620770e-03</internalNodes>
          <leafValues>
            -5.1921296119689941e-01 5.9444904327392578e-01</leafValues></_>
        <_>
          <internalNodes>
            0 -1 37 2.0431316443136893e-05</internalNodes>
          <leafValues>
            3.5162359476089478e-01 -9.0057271718978882e-01</leafValues></_>
        <_>
          <internalNodes>
            0 -1 59 1.4477893710136414e-02</internalNodes>
          <leafValues>
            -7.2945827245712280e-01 3.3531033992767334e-01</leafValues></_>
        <_>
          <internalNodes>
            0 -1 40 3.9720653148833662e-06</internalNodes>
          <leafValues>
            2.9165047407150269e-01 -8.3677130937576294e-01</leafValues></_>
        <_>
          <internalNodes>
            0 -1 57 -4.4838532630819827e-05</internalNodes>
          <leafValues>
            -9.8052185773849487e-01 1.8879476189613342e-01</leafValues></_></weakClassifiers></_>
    <!-- stage 7 -->
    <_>
      <maxWeakCount>9</maxWeakCount>
      <stageThreshold>-1.2880609035491943e+00</stageThreshold>
      <weakClassifiers>
        <_>
          <internalNodes>
            0 -1 62 1.2100104868295603e-05</internalNodes>
          <leafValues>
            5.0807070732116699e-01 -8.7290972471237183e-01</leafValues></_>
        <_>
          <internalNodes>
            0 -1 22 1.2284005060791969e-02</internalNodes>
          <leafValues>
            -5.3004902601242065e-01 5.5313366651535034e-01</leafValues></_>
        <_>
          <internalNodes>
            0 -1 26 5.6178559316322207e-04</internalNodes>
          <leafValues>
            -8.4544324874877930e-01 3.8331475853919983e-01</leafValues></_>
        <_>
          <internalNodes>
            0 -1 10 4.1525545530021191e-03</internalNodes>
          <leafValues>
            -7.1684384346008301e-01 3.3341485261917114e-01</leafValues></_>
        <_>
          <internalNodes>
            0 -1 23 -3.9660029869992286e-05</internalNodes>
          <leafValues>
            -9.5721608400344849e-01 2.4030710756778717e-01</leafValues></_>
        <_>
          <internalNodes>
            0 -1 68 -1.2776581570506096e-03</internalNodes>
          <leafValues>
            5.8513885736465454e-01 -4.6518251299858093e-01</leafValues></_>
        <_>
          <internalNodes>
            0 -1 34 -2.9291898044903064e-06</internalNodes>
          <leafValues>
            -9.4379323720932007e-01 2.4773316085338593e-01</leafValues></_>
        <_>
          <internalNodes>
            0 -1 41 5.1501265261322260e-05</internalNodes>
          <leafValues>
            -7.9861605167388916e-01 2.3496517539024353e-01</leafValues></_>
        <_>
          <internalNodes>
            0 -1 58 2.8082378776161931e-05</internalNodes>
          <leafValues>
            1.9060409069061279e-01 -8.5257083177566528e-01</leafValues></_></weakClassifiers></_>
    <!-- stage 8 -->
    <_>
      <maxWeakCount>8</maxWeakCount>
      <stageThreshold>-1.2524149417877197e+00</stageThreshold>
      <weakClassifiers>
        <_>
          <internalNodes>
            0 -1 49 2.4702586233615875e-04</internalNodes>
          <leafValues>
            -6.6153848171234131e-01 5.4380166530609131e-01</leafValues></_>
        <_>
          <internalNodes>
            0 -1 70 -7.2908715810626745e-04</internalNodes>
          <leafValues>
            3.9337104558944702e-01 -6.1567705869674683e-01</leafValues></_>
        <_>
          <internalNodes>
            0 -1 36 -1.8966371499118395e-05</internalNodes>
          <leafValues>
            -9.6809709072113037e-01 2.7325299382209778e-01</leafValues></_>
        <_>
          <internalNodes>
            0 -1 7 2.4483962915837765e-03</internalNodes>
          <leafValues>
            -4.4670569896697998e-01 5.3141117095947266e-01</leafValues></_>
        <_>
          <internalNodes>
            0 -1 19 -1.9026942027267069e-05</internalNodes>
          <leafValues>
            -9.4692182540893555e-01 2.2457344830036163e-01</leafValues></_>
        <_>
          <internalNodes>
            0 -1 50 1.6656398074701428e-03</internalNodes>
          <leafValues>
            -9.7630810737609863e-01 1.9337740540504456e-01</leafValues></_>
        <_>
          <internalNodes>
            0 -1 63 9.1873705387115479e-03</internalNodes>
          <leafValues>
            -3.9087161421775818e-01 6.2935942411422729e-01</leafValues></_>
        <_>
          <internalNodes>
            0 -1 13 9.3525974079966545e-03</internalNodes>
          <leafValues>
            -6.7437022924423218e-01 3.6963123083114624e-01</leafValues></_></weakClassifiers></_>
    <!-- stage 9 -->
    <_>
      <maxWeakCount>7</maxWeakCount>
      <stageThreshold>-1.3153553009033203e+00</stageThreshold>
      <weakClassifiers>
        <_>
          <internalNodes>
            0 -1 65 -4.0814942622091621e-05</internalNodes>
          <leafValues>
            -8.0272108316421509e-01 4.8698315024375916e-01</leafValues></_>
        <_>
          <internalNodes>
            0 -1 31 1.0126724373549223e-04</internalNodes>
          <leafValues>
            -9.1981005668640137e-01 2.5653031468391418e-01</leafValues></_>
        <_>
          <internalNodes>
            0 -1 3 9.8628886044025421e-03</internalNodes>
          <leafValues>
            -8.3022487163543701e-01 2.4869945645332336e-01</leafValues></_>
        <_>
          <internalNodes>
            0 -1 46 -2.8017851946060546e-05</internalNodes>
          <leafValues>
            -9.7032439708709717e-01 2.3195682466030121e-01</leafValues></_>
        <_>
          <internalNodes>
            0 -1 15 -6.1602095229318365e-06</internalNodes>
          <leafValues>
            -8.2976454496383667e-01 2.1445034444332123e-01</leafValues></_>
        <_>
          <internalNodes>
            0 -1 11 -1.1832799762487411e-01</internalNodes>
          <leafValues>
            2.2668488323688507e-01 -8.4537547826766968e-01</leafValues></_>
        <_>
          <internalNodes>
            0 -1 17 -2.4179680622182786e-06</internalNodes>
          <leafValues>
            -8.5752105712890625e-01 2.4713751673698425e-01</leafValues></_></weakClassifiers></_>
    <!-- stage 10 -->
    <_>
      <maxWeakCount>11</maxWeakCount>
      <stageThreshold>-1.4038550853729248e+00</stageThreshold>
      <weakClassifiers>
        <_>
          <internalNodes>
            0 -1 27 -3.4706223232205957e-05</internalNodes>
          <leafValues>
            -8.3882784843444824e-01 4.7400149703025818e-01</leafValues></_>
        <_>
          <internalNodes>
            0 -1 52 3.6019063554704189e-04</internalNodes>
          <leafValues>
            -6.5250307321548462e-01 3.7411075830459595e-01</leafValues></_>
        <_>
          <internalNodes>
            0 -1 32 1.1204674592590891e-05</internalNodes>
          <leafValues>
            4.1719457507133484e-01 -6.2679684162139893e-01</leafValues></_>
        <_>
          <internalNodes>
            0 -1 6 3.1602620147168636e-03</internalNodes>
          <leafValues>
            -5.2284985780715942e-01 4.2836531996726990e-01</leafValues></_>
        <_>
          <internalNodes>
            0 -1 47 4.0295117287314497e-06</internalNodes>
          <leafValues>
            2.1032917499542236e-01 -9.9367809295654297e-01</leafValues></_>
        <_>
          <internalNodes>
            0 -1 61 9.5700789242982864e-03</internalNodes>
          <leafValues>
            -4.0867313742637634e-01 5.2768057584762573e-01</leafValues></_>
        <_>
          <internalNodes>
            0 -1 48 8.5133087850408629e-06</internalNodes>
          <leafValues>
            2.4649605154991150e-01 -7.9181641340255737e-01</leafValues></_>
        <_>
          <internalNodes>
            0 -1 51 -1.4273599663283676e-04</internalNodes>
          <leafValues>
            -9.4694077968597412e-01 1.9393774867057800e-01</leafValues></_>
        <_>
          <internalNodes>
            0 -1 9 1.0750545334303752e-04</internalNodes>
          <leafValues>
            -6.0640043020248413e-01 2.9971602559089661e-01</leafValues></_>
        <_>
          <internalNodes>
            0 -1 53 -1.8974242266267538e-04</internalNodes>
          <leafValues>
            4.0503329038619995e-01 -5.4544752836227417e-01</leafValues></_>
        <_>
          <internalNodes>
            0 -1 21 -6.6453144427214283e-06</internalNodes>
          <leafValues>
            -7.7048105001449585e-01 2.7174478769302368e-01</leafValues></_></weakClassifiers></_>
    <!-- stage 11 -->
    <_>
      <maxWeakCount>9</maxWeakCount>
      <stageThreshold>-1.2549469470977783e+00</stageThreshold>
      <weakClassifiers>
        <_>
          <internalNodes>
            0 -1 38 1.8152077245758846e-05</internalNodes>
          <leafValues>
            4.7032642364501953e-01 -9.2857140302658081e-01</leafValues></_>
        <_>
          <internalNodes>
            0 -1 69 -4.6142970677465200e-04</internalNodes>
          <leafValues>
            6.4666122198104858e-01 -3.3199003338813782e-01</leafValues></_>
        <_>
          <internalNodes>
            0 -1 66 1.3917835894972086e-04</internalNodes>
          <leafValues>
            -2.7493956685066223e-01 6.8483501672744751e-01</leafValues></_>
        <_>
          <internalNodes>
            0 -1 8 5.1892810733988881e-04</internalNodes>
          <leafValues>
            -3.4242647886276245e-01 5.7346045970916748e-01</leafValues></_>
        <_>
          <internalNodes>
            0 -1 29 -1.4387938790605403e-05</internalNodes>
          <leafValues>
            -8.9749974012374878e-01 2.8659158945083618e-01</leafValues></_>
        <_>
          <internalNodes>
            0 -1 18 9.9432114511728287e-03</internalNodes>
          <leafValues>
            -3.1873542070388794e-01 7.1948742866516113e-01</leafValues></_>
        <_>
          <internalNodes>
            0 -1 67 -8.2671147538349032e-05</internalNodes>
          <leafValues>
            3.3842954039573669e-01 -6.1785382032394409e-01</leafValues></_>
        <_>
          <internalNodes>
            0 -1 30 -1.3808819403493544e-06</internalNodes>
          <leafValues>
            -7.3099541664123535e-01 2.4031427502632141e-01</leafValues></_>
        <_>
          <internalNodes>
            0 -1 25 -4.8127587069757283e-04</internalNodes>
          <leafValues>
            5.7998067140579224e-01 -3.6623397469520569e-01</leafValues></_></weakClassifiers></_></stages>
  <features>
    <_>
      <rects>
        <_>
          0 0 6 51 -1.</_>
        <_>
          3 0 3 51 2.</_></rects>
      <tilted>0</tilted></_>
    <_>
      <rects>
        <_>
          0 0 72 51 -1.</_>
        <_>
          24 17 24 17 9.</_></rects>
      <tilted>0</tilted></_>
    <_>
      <rects>
        <_>
          0 0 78 39 -1.</_>
        <_>
          26 13 26 13 9.</_></rects>
      <tilted>0</tilted></_>
    <_>
      <rects>
        <_>
          0 0 61 18 -1.</_>
        <_>
          0 9 61 9 2.</_></rects>
      <tilted>0</tilted></_>
    <_>
      <rects>
        <_>
          0 0 70 22 -1.</_>
        <_>
          0 11 70 11 2.</_></rects>
      <tilted>0</tilted></_>
    <_>
      <rects>
        <_>
          0 3 4 50 -1.</_>
        <_>
          2 3 2 50 2.</_></rects>
      <tilted>0</tilted></_>
    <_>
      <rects>
        <_>
          0 8 6 43 -1.</_>
        <_>
          3 8 3 43 2.</_></rects>
      <tilted>0</tilted></_>
    <_>
      <rects>
        <_>
          0 13 4 36 -1.</_>
        <_>
          2 13 2 36 2.</_></rects>
      <tilted>0</tilted></_>
    <_>
      <rects>
        <_>
          0 15 2 27 -1.</_>
        <_>
          1 15 1 27 2.</_></rects>
      <tilted>0</tilted></_>
    <_>
      <rects>
        <_>
          1 0 1 38 -1.</_>
        <_>
          1 19 1 19 2.</_></rects>
      <tilted>0</tilted></_>
    <_>
      <rects>
        <_>
          1 3 39 1 -1.</_>
        <_>
          14 16 13 1 3.</_></rects>
      <tilted>1</tilted></_>
    <_>
      <rects>
        <_>
          2 18 53 42 -1.</_>
        <_>
          2 39 53 21 2.</_></rects>
      <tilted>0</tilted></_>
    <_>
      <rects>
        <_>
          3 0 48 1 -1.</_>
        <_>
          15 12 24 1 2.</_></rects>
      <tilted>1</tilted></_>
    <_>
      <rects>
        <_>
          7 0 36 4 -1.</_>
        <_>
          19 12 12 4 3.</_></rects>
      <tilted>1</tilted></_>
    <_>
      <rects>
        <_>
          9 0 52 14 -1.</_>
        <_>
          9 7 52 7 2.</_></rects>
      <tilted>0</tilted></_>
    <_>
      <rects>
        <_>
          14 14 24 19 -1.</_>
        <_>
          20 14 12 19 2.</_></rects>
      <tilted>0</tilted></_>
    <_>
      <rects>
        <_>
          14 19 30 6 -1.</_>
        <_>
          24 19 10 6 3.</_></rects>
      <tilted>0</tilted></_>
    <_>
      <rects>
        <_>
          16 15 24 4 -1.</_>
        <_>
          28 15 12 4 2.</_></rects>
      <tilted>0</tilted></_>
    <_>
      <rects>
        <_>
          16 35 6 15 -1.</_>
        <_>
          11 40 6 5 3.</_></rects>
      <tilted>1</tilted></_>
    <_>
      <rects>
        <_>
          18 18 24 10 -1.</_>
        <_>
          24 18 12 10 2.</_></rects>
      <tilted>0</tilted></_>
    <_>
      <rects>
        <_>
          18 20 41 10 -1.</_>
        <_>
          18 25 41 5 2.</_></rects>
      <tilted>0</tilted></_>
    <_>
      <rects>
        <_>
          19 22 22 6 -1.</_>
        <_>
          19 22 11 3 2.</_>
        <_>
          30 25 11 3 2.</_></rects>
      <tilted>0</tilted></_>
    <_>
      <rects>
        <_>
          21 0 40 24 -1.</_>
        <_>
          21 6 40 12 2.</_></rects>
      <tilted>0</tilted></_>
    <_>
      <rects>
        <_>
          21 17 21 12 -1.</_>
        <_>
          28 21 7 4 9.</_></rects>
      <tilted>0</tilted></_>
    <_>
      <rects>
        <_>
          23 21 22 4 -1.</_>
        <_>
          34 21 11 4 2.</_></rects>
      <tilted>0</tilted></_>
    <_>
      <rects>
        <_>
          24 0 54 2 -1.</_>
        <_>
          24 0 27 1 2.</_>
        <_>
          51 1 27 1 2.</_></rects>
      <tilted>0</tilted></_>
    <_>
      <rects>
        <_>
          24 31 28 7 -1.</_>
        <_>
          31 31 14 7 2.</_></rects>
      <tilted>0</tilted></_>
    <_>
      <rects>
        <_>
          26 14 17 8 -1.</_>
        <_>
          26 16 17 4 2.</_></rects>
      <tilted>0</tilted></_>
    <_>
      <rects>
        <_>
          26 28 16 2 -1.</_>
        <_>
          26 28 8 2 2.</_></rects>
      <tilted>1</tilted></_>
    <_>
      <rects>
        <_>
          28 18 12 13 -1.</_>
        <_>
          31 18 6 13 2.</_></rects>
      <tilted>0</tilted></_>
    <_>
      <rects>
        <_>
          29 21 6 10 -1.</_>
        <_>
          29 21 3 10 2.</_></rects>
      <tilted>1</tilted></_>
    <_>
      <rects>
        <_>
          29 22 16 19 -1.</_>
        <_>
          33 22 8 19 2.</_></rects>
      <tilted>0</tilted></_>
    <_>
      <rects>
        <_>
          30 14 15 8 -1.</_>
        <_>
          30 16 15 4 2.</_></rects>
      <tilted>0</tilted></_>
    <_>
      <rects>
        <_>
          30 16 20 7 -1.</_>
        <_>
          35 16 10 7 2.</_></rects>
      <tilted>0</tilted></_>
    <_>
      <rects>
        <_>
          30 21 14 3 -1.</_>
        <_>
          30 21 7 3 2.</_></rects>
      <tilted>1</tilted></_>
    <_>
      <rects>
        <_>
          30 32 1 18 -1.</_>
        <_>
          30 41 1 9 2.</_></rects>
      <tilted>0</tilted></_>
    <_>
      <rects>
        <_>
          31 19 16 7 -1.</_>
        <_>
          35 19 8 7 2.</_></rects>
      <tilted>0</tilted></_>
    <_>
      <rects>
        <_>
          31 19 18 1 -1.</_>
        <_>
          37 19 6 1 3.</_></rects>
      <tilted>0</tilted></_>
    <_>
      <rects>
        <_>
          32 20 9 1 -1.</_>
        <_>
          35 23 3 1 3.</_></rects>
      <tilted>1</tilted></_>
    <_>
      <rects>
        <_>
          34 16 10 17 -1.</_>
        <_>
          34 16 5 17 2.</_></rects>
      <tilted>1</tilted></_>
    <_>
      <rects>
        <_>
          34 18 2 8 -1.</_>
        <_>
          34 20 2 4 2.</_></rects>
      <tilted>0</tilted></_>
    <_>
      <rects>
        <_>
          34 28 12 13 -1.</_>
        <_>
          38 28 4 13 3.</_></rects>
      <tilted>0</tilted></_>
    <_>
      <rects>
        <_>
          35 20 16 8 -1.</_>
        <_>
          39 24 8 8 2.</_></rects>
      <tilted>1</tilted></_>
    <_>
      <rects>
        <_>
          36 10 12 50 -1.</_>
        <_>
          36 35 12 25 2.</_></rects>
      <tilted>0</tilted></_>
    <_>
      <rects>
        <_>
          36 15 5 12 -1.</_>
        <_>
          36 21 5 6 2.</_></rects>
      <tilted>0</tilted></_>
    <_>
      <rects>
        <_>
          37 17 8 4 -1.</_>
        <_>
          37 17 8 2 2.</_></rects>
      <tilted>1</tilted></_>
    <_>
      <rects>
        <_>
          37 20 15 10 -1.</_>
        <_>
          42 20 5 10 3.</_></rects>
      <tilted>0</tilted></_>
    <_>
      <rects>
        <_>
          38 9 6 8 -1.</_>
        <_>
          38 9 3 8 2.</_></rects>
      <tilted>1</tilted></_>
    <_>
      <rects>
        <_>
          38 18 6 6 -1.</_>
        <_>
          38 18 6 3 2.</_></rects>
      <tilted>1</tilted></_>
    <_>
      <rects>
        <_>
          39 13 20 25 -1.</_>
        <_>
          44 13 10 25 2.</_></rects>
      <tilted>0</tilted></_>
    <_>
      <rects>
        <_>
          39 19 15 11 -1.</_>
        <_>
          44 24 5 11 3.</_></rects>
      <tilted>1</tilted></_>
    <_>
      <rects>
        <_>
          40 17 4 10 -1.</_>
        <_>
          40 17 2 10 2.</_></rects>
      <tilted>1</tilted></_>
    <_>
      <rects>
        <_>
          40 21 18 18 -1.</_>
        <_>
          46 21 6 18 3.</_></rects>
      <tilted>0</tilted></_>
    <_>
      <rects>
        <_>
          40 32 2 6 -1.</_>
        <_>
          40 35 2 3 2.</_></rects>
      <tilted>0</tilted></_>
    <_>
      <rects>
        <_>
          41 16 4 2 -1.</_>
        <_>
          41 16 2 2 2.</_></rects>
      <tilted>1</tilted></_>
    <_>
      <rects>
        <_>
          41 21 4 4 -1.</_>
        <_>
          41 21 2 4 2.</_></rects>
      <tilted>1</tilted></_>
    <_>
      <rects>
        <_>
          42 14 4 4 -1.</_>
        <_>
          42 14 2 4 2.</_></rects>
      <tilted>1</tilted></_>
    <_>
      <rects>
        <_>
          42 14 6 9 -1.</_>
        <_>
          39 17 6 3 3.</_></rects>
      <tilted>1</tilted></_>
    <_>
      <rects>
        <_>
          42 17 4 8 -1.</_>
        <_>
          40 19 4 4 2.</_></rects>
      <tilted>1</tilted></_>
    <_>
      <rects>
        <_>
          44 4 36 46 -1.</_>
        <_>
          44 4 18 23 2.</_>
        <_>
          62 27 18 23 2.</_></rects>
      <tilted>0</tilted></_>
    <_>
      <rects>
        <_>
          44 18 4 7 -1.</_>
        <_>
          45 19 2 7 2.</_></rects>
      <tilted>1</tilted></_>
    <_>
      <rects>
        <_>
          44 44 26 12 -1.</_>
        <_>
          57 44 13 12 2.</_></rects>
      <tilted>0</tilted></_>
    <_>
      <rects>
        <_>
          45 14 4 10 -1.</_>
        <_>
          45 14 2 10 2.</_></rects>
      <tilted>1</tilted></_>
    <_>
      <rects>
        <_>
          47 47 33 9 -1.</_>
        <_>
          58 47 11 9 3.</_></rects>
      <tilted>0</tilted></_>
    <_>
      <rects>
        <_>
          50 15 2 9 -1.</_>
        <_>
          50 15 1 9 2.</_></rects>
      <tilted>1</tilted></_>
    <_>
      <rects>
        <_>
          50 18 1 8 -1.</_>
        <_>
          50 18 1 4 2.</_></rects>
      <tilted>1</tilted></_>
    <_>
      <rects>
        <_>
          54 46 16 2 -1.</_>
        <_>
          54 47 16 1 2.</_></rects>
      <tilted>0</tilted></_>
    <_>
      <rects>
        <_>
          57 9 4 27 -1.</_>
        <_>
          59 9 2 27 2.</_></rects>
      <tilted>0</tilted></_>
    <_>
      <rects>
        <_>
          71 21 8 38 -1.</_>
        <_>
          71 21 4 19 2.</_>
        <_>
          75 40 4 19 2.</_></rects>
      <tilted>0</tilted></_>
    <_>
      <rects>
        <_>
          78 15 2 29 -1.</_>
        <_>
          79 15 1 29 2.</_></rects>
      <tilted>0</tilted></_>
    <_>
      <rects>
        <_>
          79 0 1 22 -1.</_>
        <_>
          79 0 1 11 2.</_></rects>
      <tilted>1</tilted></_></features></cascade>
</opencv_storage>
